digraph Tree {
node [shape=box, style="filled, rounded", color="black", fontname=helvetica] ;
edge [fontname=helvetica] ;
0 [label="petal width (cm) <= 0.75\ngini = 0.66\nsamples = 94\nvalue = [46, 55, 49]\nclass = versicolor", fillcolor="#f3fdf8"] ;
1 [label="gini = 0.0\nsamples = 29\nvalue = [46, 0, 0]\nclass = setosa", fillcolor="#e58139"] ;
0 -> 1 [labeldistance=2.5, labelangle=45, headlabel="True"] ;
2 [label="petal length (cm) <= 4.75\ngini = 0.5\nsamples = 65\nvalue = [0, 55, 49]\nclass = versicolor", fillcolor="#e9fcf1"] ;
0 -> 2 [labeldistance=2.5, labelangle=-45, headlabel="False"] ;
3 [label="sepal width (cm) <= 2.55\ngini = 0.08\nsamples = 32\nvalue = [0, 49, 2]\nclass = versicolor", fillcolor="#41e686"] ;
2 -> 3 ;
4 [label="sepal length (cm) <= 4.95\ngini = 0.2\nsamples = 11\nvalue = [0, 16, 2]\nclass = versicolor", fillcolor="#52e891"] ;
3 -> 4 ;
5 [label="gini = 0.0\nsamples = 1\nvalue = [0, 0, 2]\nclass = virginica", fillcolor="#8139e5"] ;
4 -> 5 ;
6 [label="gini = 0.0\nsamples = 10\nvalue = [0, 16, 0]\nclass = versicolor", fillcolor="#39e581"] ;
4 -> 6 ;
7 [label="gini = 0.0\nsamples = 21\nvalue = [0, 33, 0]\nclass = versicolor", fillcolor="#39e581"] ;
3 -> 7 ;
8 [label="petal width (cm) <= 1.75\ngini = 0.2\nsamples = 33\nvalue = [0, 6, 47]\nclass = virginica", fillcolor="#9152e8"] ;
2 -> 8 ;
9 [label="petal width (cm) <= 1.45\ngini = 0.49\nsamples = 5\nvalue = [0, 5, 4]\nclass = versicolor", fillcolor="#d7fae6"] ;
8 -> 9 ;
10 [label="gini = 0.0\nsamples = 1\nvalue = [0, 0, 3]\nclass = virginica", fillcolor="#8139e5"] ;
9 -> 10 ;
11 [label="petal length (cm) <= 5.45\ngini = 0.28\nsamples = 4\nvalue = [0, 5, 1]\nclass = versicolor", fillcolor="#61ea9a"] ;
9 -> 11 ;
12 [label="gini = 0.0\nsamples = 3\nvalue = [0, 5, 0]\nclass = versicolor", fillcolor="#39e581"] ;
11 -> 12 ;
13 [label="gini = 0.0\nsamples = 1\nvalue = [0, 0, 1]\nclass = virginica", fillcolor="#8139e5"] ;
11 -> 13 ;
14 [label="petal length (cm) <= 4.85\ngini = 0.04\nsamples = 28\nvalue = [0, 1, 43]\nclass = virginica", fillcolor="#843ee6"] ;
8 -> 14 ;
15 [label="sepal length (cm) <= 5.95\ngini = 0.44\nsamples = 3\nvalue = [0, 1, 2]\nclass = virginica", fillcolor="#c09cf2"] ;
14 -> 15 ;
16 [label="gini = 0.0\nsamples = 1\nvalue = [0, 1, 0]\nclass = versicolor", fillcolor="#39e581"] ;
15 -> 16 ;
17 [label="gini = 0.0\nsamples = 2\nvalue = [0, 0, 2]\nclass = virginica", fillcolor="#8139e5"] ;
15 -> 17 ;
18 [label="gini = 0.0\nsamples = 25\nvalue = [0, 0, 41]\nclass = virginica", fillcolor="#8139e5"] ;
14 -> 18 ;
}